Language model created by QuickLM on Fri Jun 16 14:21:30 EDT 2017
Copyright (c) 1996-2010 Carnegie Mellon University and Alexander I. Rudnicky

The model is in standard ARPA format, designed by Doug Paul while he was at MITRE.

The code that was used to produce this language model is available in Open Source.
Please visit http://www.speech.cs.cmu.edu/tools/ for more information

The (fixed) discount mass is 0.5. The backoffs are computed using the ratio method.
This model based on a corpus of 18 sentences and 53 words

\data\
ngram 1=53
ngram 2=73
ngram 3=59

\1-grams:
-1.0325 </s> -0.3010
-1.0325 <s> -0.2587
-1.8107 A -0.2943
-2.2878 AMOUNT -0.2988
-2.2878 ARE? -0.2587
-2.2878 BUBBLE -0.2988
-2.2878 CAKE? -0.2587
-2.2878 CAN -0.2988
-2.2878 COOKIES -0.2587
-2.2878 CREATED -0.2988
-2.2878 DAY? -0.2587
-2.2878 DIRECTIONS -0.2988
-2.2878 DO -0.2965
-2.2878 DONUTS -0.2587
-2.2878 DREAMS -0.2587
-2.2878 E-MAIL -0.2587
-2.2878 FACTS -0.2965
-2.2878 FIND -0.2965
-1.9868 FOR -0.2965
-2.2878 GET -0.2988
-2.2878 HEALTHY -0.2988
-2.2878 I -0.2988
-1.9868 IS -0.2943
-1.8107 KIFT -0.2587
-2.2878 KREME -0.2587
-2.2878 KRISPY -0.2988
-2.2878 LOVE -0.2988
-1.9868 ME -0.2920
-2.2878 ME? -0.2587
-2.2878 NUTRITIONAL -0.2988
-2.2878 OF -0.2988
-2.2878 OKAY -0.2943
-2.2878 OPEN -0.2988
-2.2878 OREOS? -0.2587
-2.2878 PER -0.2988
-2.2878 PLAY -0.2988
-2.2878 PRIVAT -0.2943
-2.2878 PRIVET -0.2943
-2.2878 RECIPE -0.2965
-2.2878 SAFARI -0.2587
-2.2878 SEND -0.2988
-2.2878 SHUTDOWN -0.2587
-2.2878 STORY -0.2587
-2.2878 SUGAR -0.2988
-2.2878 TAPIOCA -0.2587
-2.2878 TEA? -0.2587
-2.2878 TELL -0.2965
-2.2878 TO -0.2988
-1.9868 WHAT -0.2965
-2.2878 WHERE -0.2988
-1.9868 WHO -0.2943
-1.9868 YOU -0.2965
-2.2878 ’SWEET -0.2988

\2-grams:
-1.5563 <s> DIRECTIONS 0.0000
-1.5563 <s> DO 0.0000
-1.5563 <s> FIND 0.0000
-1.5563 <s> NUTRITIONAL 0.0000
-1.5563 <s> OKAY 0.0000
-1.5563 <s> OPEN 0.0000
-1.5563 <s> PLAY 0.0000
-1.5563 <s> PRIVAT 0.0000
-1.5563 <s> PRIVET 0.0000
-1.5563 <s> RECIPE 0.0000
-1.5563 <s> SEND 0.0000
-1.5563 <s> SHUTDOWN 0.0000
-1.5563 <s> TELL 0.0000
-1.2553 <s> WHAT 0.0000
-1.5563 <s> WHERE 0.0000
-1.2553 <s> WHO 0.0000
-0.7782 A CAKE? 0.0000
-0.7782 A HEALTHY 0.0000
-0.7782 A STORY 0.0000
-0.3010 AMOUNT OF 0.0000
-0.3010 ARE? </s> -0.3010
-0.3010 BUBBLE TEA? 0.0000
-0.3010 CAKE? </s> -0.3010
-0.3010 CAN I 0.0000
-0.3010 COOKIES </s> -0.3010
-0.3010 CREATED OREOS? 0.0000
-0.3010 DAY? </s> -0.3010
-0.3010 DIRECTIONS TO 0.0000
-0.3010 DO YOU -0.1761
-0.3010 DONUTS </s> -0.3010
-0.3010 DREAMS </s> -0.3010
-0.3010 E-MAIL </s> -0.3010
-0.3010 FACTS FOR -0.1761
-0.3010 FIND ME -0.1761
-0.6021 FOR COOKIES 0.0000
-0.6021 FOR TAPIOCA 0.0000
-0.3010 GET BUBBLE 0.0000
-0.3010 HEALTHY AMOUNT 0.0000
-0.3010 I GET 0.0000
-0.3010 IS A -0.1249
-0.3010 KIFT </s> -0.3010
-0.3010 KREME </s> -0.3010
-0.3010 KRISPY KREME 0.0000
-0.3010 LOVE ME? 0.0000
-0.6021 ME A -0.2218
-0.6021 ME DONUTS 0.0000
-0.3010 ME? </s> -0.3010
-0.3010 NUTRITIONAL FACTS 0.0000
-0.3010 OF SUGAR 0.0000
-0.3010 OKAY KIFT 0.0000
-0.3010 OPEN SAFARI 0.0000
-0.3010 OREOS? </s> -0.3010
-0.3010 PER DAY? 0.0000
-0.3010 PLAY ’SWEET 0.0000
-0.3010 PRIVAT KIFT 0.0000
-0.3010 PRIVET KIFT 0.0000
-0.3010 RECIPE FOR -0.1761
-0.3010 SAFARI </s> -0.3010
-0.3010 SEND E-MAIL 0.0000
-0.3010 SHUTDOWN </s> -0.3010
-0.3010 STORY </s> -0.3010
-0.3010 SUGAR PER 0.0000
-0.3010 TAPIOCA </s> -0.3010
-0.3010 TEA? </s> -0.3010
-0.3010 TELL ME -0.1761
-0.3010 TO KRISPY 0.0000
-0.3010 WHAT IS 0.0000
-0.3010 WHERE CAN 0.0000
-0.6021 WHO CREATED 0.0000
-0.6021 WHO YOU -0.1761
-0.6021 YOU ARE? 0.0000
-0.6021 YOU LOVE 0.0000
-0.3010 ’SWEET DREAMS 0.0000

\3-grams:
-0.3010 <s> DIRECTIONS TO
-0.3010 <s> DO YOU
-0.3010 <s> FIND ME
-0.3010 <s> NUTRITIONAL FACTS
-0.3010 <s> OKAY KIFT
-0.3010 <s> OPEN SAFARI
-0.3010 <s> PLAY ’SWEET
-0.3010 <s> PRIVAT KIFT
-0.3010 <s> PRIVET KIFT
-0.3010 <s> RECIPE FOR
-0.3010 <s> SEND E-MAIL
-0.3010 <s> SHUTDOWN </s>
-0.3010 <s> TELL ME
-0.3010 <s> WHAT IS
-0.3010 <s> WHERE CAN
-0.6021 <s> WHO CREATED
-0.6021 <s> WHO YOU
-0.3010 A CAKE? </s>
-0.3010 A HEALTHY AMOUNT
-0.3010 A STORY </s>
-0.3010 AMOUNT OF SUGAR
-0.3010 BUBBLE TEA? </s>
-0.3010 CAN I GET
-0.3010 CREATED OREOS? </s>
-0.3010 DIRECTIONS TO KRISPY
-0.3010 DO YOU LOVE
-0.3010 FACTS FOR TAPIOCA
-0.3010 FIND ME DONUTS
-0.3010 FOR COOKIES </s>
-0.3010 FOR TAPIOCA </s>
-0.3010 GET BUBBLE TEA?
-0.3010 HEALTHY AMOUNT OF
-0.3010 I GET BUBBLE
-0.6021 IS A CAKE?
-0.6021 IS A HEALTHY
-0.3010 KRISPY KREME </s>
-0.3010 LOVE ME? </s>
-0.3010 ME A STORY
-0.3010 ME DONUTS </s>
-0.3010 NUTRITIONAL FACTS FOR
-0.3010 OF SUGAR PER
-0.3010 OKAY KIFT </s>
-0.3010 OPEN SAFARI </s>
-0.3010 PER DAY? </s>
-0.3010 PLAY ’SWEET DREAMS
-0.3010 PRIVAT KIFT </s>
-0.3010 PRIVET KIFT </s>
-0.3010 RECIPE FOR COOKIES
-0.3010 SEND E-MAIL </s>
-0.3010 SUGAR PER DAY?
-0.3010 TELL ME A
-0.3010 TO KRISPY KREME
-0.3010 WHAT IS A
-0.3010 WHERE CAN I
-0.3010 WHO CREATED OREOS?
-0.3010 WHO YOU ARE?
-0.3010 YOU ARE? </s>
-0.3010 YOU LOVE ME?
-0.3010 ’SWEET DREAMS </s>

\end\
