Language model created by QuickLM on Sun Jun 18 15:05:04 EDT 2017
Copyright (c) 1996-2010 Carnegie Mellon University and Alexander I. Rudnicky

The model is in standard ARPA format, designed by Doug Paul while he was at MITRE.

The code that was used to produce this language model is available in Open Source.
Please visit http://www.speech.cs.cmu.edu/tools/ for more information

The (fixed) discount mass is 0.5. The backoffs are computed using the ratio method.
This model based on a corpus of 17 sentences and 41 words

\data\
ngram 1=41
ngram 2=58
ngram 3=45

\1-grams:
-2.1987 "MASTER -0.2983
-0.9682 </s> -0.3010
-0.9682 <s> -0.2516
-2.1987 A -0.2983
-2.1987 ARE? -0.2516
-2.1987 BUBBLE -0.2983
-2.1987 CAN -0.2983
-2.1987 COFFEE -0.2516
-2.1987 DO -0.2955
-2.1987 FIND -0.2955
-2.1987 GET -0.2983
-2.1987 GOOGLE -0.2516
-2.1987 HA-HA-HA -0.2516
-2.1987 I -0.2983
-2.1987 IT -0.2516
-1.7215 KIFT -0.2516
-1.8976 LIGHT -0.2516
-2.1987 LOVE -0.2983
-1.8976 ME -0.2955
-2.1987 ME? -0.2516
-2.1987 OF -0.2983
-2.1987 OFF -0.2955
-2.1987 OKAY -0.2927
-2.1987 ON -0.2955
-2.1987 OPEN -0.2983
-2.1987 PLAY -0.2983
-2.1987 PREEV’AT -0.2927
-2.1987 PUPPETS" -0.2516
-2.1987 SAFARI -0.2516
-2.1987 SET -0.2983
-2.1987 SHUTDOWN -0.2516
-2.1987 STOP -0.2983
-2.1987 STORY -0.2516
-2.1987 STUPID -0.2927
-2.1987 TEA? -0.2516
-2.1987 TELL -0.2955
-2.1987 TIMER -0.2516
-1.8976 TURN -0.2955
-2.1987 WHERE -0.2983
-2.1987 WHO -0.2955
-1.8976 YOU -0.2955

\2-grams:
-0.3010 "MASTER OF 0.0000
-1.5315 <s> DO 0.0000
-1.5315 <s> FIND 0.0000
-1.5315 <s> GOOGLE 0.0000
-1.5315 <s> HA-HA-HA 0.0000
-1.5315 <s> OKAY 0.0000
-1.5315 <s> OPEN 0.0000
-1.5315 <s> PLAY 0.0000
-1.5315 <s> PREEV’AT 0.0000
-1.5315 <s> SET 0.0000
-1.5315 <s> SHUTDOWN 0.0000
-1.5315 <s> STOP 0.0000
-1.5315 <s> STUPID 0.0000
-1.5315 <s> TELL 0.0000
-1.2304 <s> TURN 0.0000
-1.5315 <s> WHERE 0.0000
-1.5315 <s> WHO 0.0000
-0.3010 A STORY 0.0000
-0.3010 ARE? </s> -0.3010
-0.3010 BUBBLE TEA? 0.0000
-0.3010 CAN I 0.0000
-0.3010 COFFEE </s> -0.3010
-0.3010 DO YOU -0.1761
-0.3010 FIND ME -0.1761
-0.3010 GET BUBBLE 0.0000
-0.3010 GOOGLE </s> -0.3010
-0.3010 HA-HA-HA </s> -0.3010
-0.3010 I GET 0.0000
-0.3010 IT </s> -0.3010
-0.3010 KIFT </s> -0.3010
-0.3010 LIGHT </s> -0.3010
-0.3010 LOVE ME? 0.0000
-0.6021 ME A 0.0000
-0.6021 ME COFFEE 0.0000
-0.3010 ME? </s> -0.3010
-0.3010 OF PUPPETS" 0.0000
-0.3010 OFF LIGHT 0.0000
-0.3010 OKAY KIFT 0.0000
-0.3010 ON LIGHT 0.0000
-0.3010 OPEN SAFARI 0.0000
-0.3010 PLAY "MASTER 0.0000
-0.3010 PREEV’AT KIFT 0.0000
-0.3010 PUPPETS" </s> -0.3010
-0.3010 SAFARI </s> -0.3010
-0.3010 SET TIMER 0.0000
-0.3010 SHUTDOWN </s> -0.3010
-0.3010 STOP IT 0.0000
-0.3010 STORY </s> -0.3010
-0.3010 STUPID KIFT 0.0000
-0.3010 TEA? </s> -0.3010
-0.3010 TELL ME -0.1761
-0.3010 TIMER </s> -0.3010
-0.6021 TURN OFF 0.0000
-0.6021 TURN ON 0.0000
-0.3010 WHERE CAN 0.0000
-0.3010 WHO YOU -0.1761
-0.6021 YOU ARE? 0.0000
-0.6021 YOU LOVE 0.0000

\3-grams:
-0.3010 "MASTER OF PUPPETS"
-0.3010 <s> DO YOU
-0.3010 <s> FIND ME
-0.3010 <s> GOOGLE </s>
-0.3010 <s> HA-HA-HA </s>
-0.3010 <s> OKAY KIFT
-0.3010 <s> OPEN SAFARI
-0.3010 <s> PLAY "MASTER
-0.3010 <s> PREEV’AT KIFT
-0.3010 <s> SET TIMER
-0.3010 <s> SHUTDOWN </s>
-0.3010 <s> STOP IT
-0.3010 <s> STUPID KIFT
-0.3010 <s> TELL ME
-0.6021 <s> TURN OFF
-0.6021 <s> TURN ON
-0.3010 <s> WHERE CAN
-0.3010 <s> WHO YOU
-0.3010 A STORY </s>
-0.3010 BUBBLE TEA? </s>
-0.3010 CAN I GET
-0.3010 DO YOU LOVE
-0.3010 FIND ME COFFEE
-0.3010 GET BUBBLE TEA?
-0.3010 I GET BUBBLE
-0.3010 LOVE ME? </s>
-0.3010 ME A STORY
-0.3010 ME COFFEE </s>
-0.3010 OF PUPPETS" </s>
-0.3010 OFF LIGHT </s>
-0.3010 OKAY KIFT </s>
-0.3010 ON LIGHT </s>
-0.3010 OPEN SAFARI </s>
-0.3010 PLAY "MASTER OF
-0.3010 PREEV’AT KIFT </s>
-0.3010 SET TIMER </s>
-0.3010 STOP IT </s>
-0.3010 STUPID KIFT </s>
-0.3010 TELL ME A
-0.3010 TURN OFF LIGHT
-0.3010 TURN ON LIGHT
-0.3010 WHERE CAN I
-0.3010 WHO YOU ARE?
-0.3010 YOU ARE? </s>
-0.3010 YOU LOVE ME?

\end\
