Language model created by QuickLM on Sun Jun 18 03:54:55 EDT 2017
Copyright (c) 1996-2010 Carnegie Mellon University and Alexander I. Rudnicky

The model is in standard ARPA format, designed by Doug Paul while he was at MITRE.

The code that was used to produce this language model is available in Open Source.
Please visit http://www.speech.cs.cmu.edu/tools/ for more information

The (fixed) discount mass is 0.5. The backoffs are computed using the ratio method.
This model based on a corpus of 13 sentences and 34 words

\data\
ngram 1=34
ngram 2=47
ngram 3=36

\1-grams:
-2.0934 "MASTER -0.2975
-0.9795 </s> -0.3010
-0.9795 <s> -0.2529
-2.0934 A -0.2975
-2.0934 ARE? -0.2529
-2.0934 BUBBLE -0.2975
-2.0934 CAN -0.2975
-2.0934 COFFEE -0.2529
-2.0934 DO -0.2940
-2.0934 FIND -0.2940
-2.0934 GET -0.2975
-2.0934 HA-HA-HA -0.2529
-2.0934 I -0.2975
-2.0934 IT -0.2529
-1.6163 KIFT -0.2529
-2.0934 LOVE -0.2975
-1.7924 ME -0.2940
-2.0934 ME? -0.2529
-2.0934 OF -0.2975
-2.0934 OKAY -0.2904
-2.0934 OPEN -0.2975
-2.0934 PLAY -0.2975
-2.0934 PREEV’AT -0.2904
-2.0934 PUPPETS" -0.2529
-2.0934 SAFARI -0.2529
-2.0934 SHUTDOWN -0.2529
-2.0934 STOP -0.2975
-2.0934 STORY -0.2529
-2.0934 STUPID -0.2904
-2.0934 TEA? -0.2529
-2.0934 TELL -0.2940
-2.0934 WHERE -0.2975
-2.0934 WHO -0.2940
-1.7924 YOU -0.2940

\2-grams:
-0.3010 "MASTER OF 0.0000
-1.4150 <s> DO 0.0000
-1.4150 <s> FIND 0.0000
-1.4150 <s> HA-HA-HA 0.0000
-1.4150 <s> OKAY 0.0000
-1.4150 <s> OPEN 0.0000
-1.4150 <s> PLAY 0.0000
-1.4150 <s> PREEV’AT 0.0000
-1.4150 <s> SHUTDOWN 0.0000
-1.4150 <s> STOP 0.0000
-1.4150 <s> STUPID 0.0000
-1.4150 <s> TELL 0.0000
-1.4150 <s> WHERE 0.0000
-1.4150 <s> WHO 0.0000
-0.3010 A STORY 0.0000
-0.3010 ARE? </s> -0.3010
-0.3010 BUBBLE TEA? 0.0000
-0.3010 CAN I 0.0000
-0.3010 COFFEE </s> -0.3010
-0.3010 DO YOU -0.1761
-0.3010 FIND ME -0.1761
-0.3010 GET BUBBLE 0.0000
-0.3010 HA-HA-HA </s> -0.3010
-0.3010 I GET 0.0000
-0.3010 IT </s> -0.3010
-0.3010 KIFT </s> -0.3010
-0.3010 LOVE ME? 0.0000
-0.6021 ME A 0.0000
-0.6021 ME COFFEE 0.0000
-0.3010 ME? </s> -0.3010
-0.3010 OF PUPPETS" 0.0000
-0.3010 OKAY KIFT 0.0000
-0.3010 OPEN SAFARI 0.0000
-0.3010 PLAY "MASTER 0.0000
-0.3010 PREEV’AT KIFT 0.0000
-0.3010 PUPPETS" </s> -0.3010
-0.3010 SAFARI </s> -0.3010
-0.3010 SHUTDOWN </s> -0.3010
-0.3010 STOP IT 0.0000
-0.3010 STORY </s> -0.3010
-0.3010 STUPID KIFT 0.0000
-0.3010 TEA? </s> -0.3010
-0.3010 TELL ME -0.1761
-0.3010 WHERE CAN 0.0000
-0.3010 WHO YOU -0.1761
-0.6021 YOU ARE? 0.0000
-0.6021 YOU LOVE 0.0000

\3-grams:
-0.3010 "MASTER OF PUPPETS"
-0.3010 <s> DO YOU
-0.3010 <s> FIND ME
-0.3010 <s> HA-HA-HA </s>
-0.3010 <s> OKAY KIFT
-0.3010 <s> OPEN SAFARI
-0.3010 <s> PLAY "MASTER
-0.3010 <s> PREEV’AT KIFT
-0.3010 <s> SHUTDOWN </s>
-0.3010 <s> STOP IT
-0.3010 <s> STUPID KIFT
-0.3010 <s> TELL ME
-0.3010 <s> WHERE CAN
-0.3010 <s> WHO YOU
-0.3010 A STORY </s>
-0.3010 BUBBLE TEA? </s>
-0.3010 CAN I GET
-0.3010 DO YOU LOVE
-0.3010 FIND ME COFFEE
-0.3010 GET BUBBLE TEA?
-0.3010 I GET BUBBLE
-0.3010 LOVE ME? </s>
-0.3010 ME A STORY
-0.3010 ME COFFEE </s>
-0.3010 OF PUPPETS" </s>
-0.3010 OKAY KIFT </s>
-0.3010 OPEN SAFARI </s>
-0.3010 PLAY "MASTER OF
-0.3010 PREEV’AT KIFT </s>
-0.3010 STOP IT </s>
-0.3010 STUPID KIFT </s>
-0.3010 TELL ME A
-0.3010 WHERE CAN I
-0.3010 WHO YOU ARE?
-0.3010 YOU ARE? </s>
-0.3010 YOU LOVE ME?

\end\
