Language model created by QuickLM on Tue Jun  6 23:47:49 EDT 2017
Copyright (c) 1996-2010 Carnegie Mellon University and Alexander I. Rudnicky

The model is in standard ARPA format, designed by Doug Paul while he was at MITRE.

The code that was used to produce this language model is available in Open Source.
Please visit http://www.speech.cs.cmu.edu/tools/ for more information

The (fixed) discount mass is 0.5. The backoffs are computed using the ratio method.
This model based on a corpus of 4 sentences and 9 words

\data\
ngram 1=9
ngram 2=11
ngram 3=7

\1-grams:
-0.8751 </s> -0.3010
-0.8751 <s> -0.2389
-1.4771 E-MAIL -0.2389
-1.4771 KIFT -0.2389
-1.4771 OKAY -0.2863
-1.4771 OPEN -0.2863
-1.4771 SAFARI -0.2389
-1.4771 SEND -0.2863
-1.4771 SHUTDOWN -0.2389

\2-grams:
-0.9031 <s> OKAY 0.0000
-0.9031 <s> OPEN 0.0000
-0.9031 <s> SEND 0.0000
-0.9031 <s> SHUTDOWN 0.0000
-0.3010 E-MAIL </s> -0.3010
-0.3010 KIFT </s> -0.3010
-0.3010 OKAY KIFT 0.0000
-0.3010 OPEN SAFARI 0.0000
-0.3010 SAFARI </s> -0.3010
-0.3010 SEND E-MAIL 0.0000
-0.3010 SHUTDOWN </s> -0.3010

\3-grams:
-0.3010 <s> OKAY KIFT
-0.3010 <s> OPEN SAFARI
-0.3010 <s> SEND E-MAIL
-0.3010 <s> SHUTDOWN </s>
-0.3010 OKAY KIFT </s>
-0.3010 OPEN SAFARI </s>
-0.3010 SEND E-MAIL </s>

\end\
